<?xml version="1.0" encoding="UTF-8" standalone="yes"?>
<PMML xmlns="http://www.dmg.org/PMML-4_3" xmlns:data="http://jpmml.org/jpmml-model/InlineTable" version="4.3">
	<Header>
		<Application name="JPMML-SparkML" version="1.2.12"/>
		<Timestamp>2018-09-27T22:48:23Z</Timestamp>
	</Header>
	<DataDictionary>
		<DataField name="TransformerLoad" optype="continuous" dataType="double"/>
		<DataField name="TopOilTemperature" optype="continuous" dataType="double"/>
		<DataField name="OilVolume" optype="continuous" dataType="double"/>
		<DataField name="Threat" optype="categorical" dataType="integer">
			<Value value="0"/>
			<Value value="1"/>
			<Value value="2"/>
			<Value value="3"/>
			<Value value="4"/>
			<Value value="5"/>
		</DataField>
	</DataDictionary>
	<TreeModel functionName="classification" missingValueStrategy="nullPrediction" splitCharacteristic="multiSplit">
		<MiningSchema>
			<MiningField name="Threat" usageType="target"/>
			<MiningField name="TransformerLoad"/>
			<MiningField name="TopOilTemperature"/>
			<MiningField name="OilVolume"/>
		</MiningSchema>
		<Output>
			<OutputField name="pmml(prediction)" optype="categorical" dataType="integer" feature="predictedValue"/>
			<OutputField name="prediction" optype="categorical" dataType="double" feature="transformedValue">
				<MapValues outputColumn="data:output">
					<FieldColumnPair field="pmml(prediction)" column="data:input"/>
					<InlineTable>
						<row>
							<data:input>0</data:input>
							<data:output>0</data:output>
						</row>
						<row>
							<data:input>1</data:input>
							<data:output>1</data:output>
						</row>
						<row>
							<data:input>2</data:input>
							<data:output>2</data:output>
						</row>
						<row>
							<data:input>3</data:input>
							<data:output>3</data:output>
						</row>
						<row>
							<data:input>4</data:input>
							<data:output>4</data:output>
						</row>
						<row>
							<data:input>5</data:input>
							<data:output>5</data:output>
						</row>
					</InlineTable>
				</MapValues>
			</OutputField>
			<OutputField name="probability(0)" optype="continuous" dataType="double" feature="probability" value="0"/>
			<OutputField name="probability(1)" optype="continuous" dataType="double" feature="probability" value="1"/>
			<OutputField name="probability(2)" optype="continuous" dataType="double" feature="probability" value="2"/>
			<OutputField name="probability(3)" optype="continuous" dataType="double" feature="probability" value="3"/>
			<OutputField name="probability(4)" optype="continuous" dataType="double" feature="probability" value="4"/>
			<OutputField name="probability(5)" optype="continuous" dataType="double" feature="probability" value="5"/>
		</Output>
		<Node>
			<True/>
			<Node>
				<SimplePredicate field="TopOilTemperature" operator="lessOrEqual" value="80.4641272"/>
				<Node score="0" recordCount="994.0">
					<SimplePredicate field="TransformerLoad" operator="lessOrEqual" value="0.478132561"/>
					<ScoreDistribution value="0" recordCount="994.0"/>
					<ScoreDistribution value="1" recordCount="0.0"/>
					<ScoreDistribution value="2" recordCount="0.0"/>
					<ScoreDistribution value="3" recordCount="0.0"/>
					<ScoreDistribution value="4" recordCount="0.0"/>
					<ScoreDistribution value="5" recordCount="0.0"/>
				</Node>
				<Node score="0" recordCount="30.0">
					<SimplePredicate field="TopOilTemperature" operator="lessOrEqual" value="74.50513425"/>
					<ScoreDistribution value="0" recordCount="30.0"/>
					<ScoreDistribution value="1" recordCount="0.0"/>
					<ScoreDistribution value="2" recordCount="0.0"/>
					<ScoreDistribution value="3" recordCount="0.0"/>
					<ScoreDistribution value="4" recordCount="0.0"/>
					<ScoreDistribution value="5" recordCount="0.0"/>
				</Node>
				<Node score="1" recordCount="2.0">
					<SimplePredicate field="OilVolume" operator="lessOrEqual" value="909.6259567"/>
					<ScoreDistribution value="0" recordCount="0.0"/>
					<ScoreDistribution value="1" recordCount="2.0"/>
					<ScoreDistribution value="2" recordCount="0.0"/>
					<ScoreDistribution value="3" recordCount="0.0"/>
					<ScoreDistribution value="4" recordCount="0.0"/>
					<ScoreDistribution value="5" recordCount="0.0"/>
				</Node>
				<Node score="0" recordCount="4.0">
					<True/>
					<ScoreDistribution value="0" recordCount="4.0"/>
					<ScoreDistribution value="1" recordCount="0.0"/>
					<ScoreDistribution value="2" recordCount="0.0"/>
					<ScoreDistribution value="3" recordCount="0.0"/>
					<ScoreDistribution value="4" recordCount="0.0"/>
					<ScoreDistribution value="5" recordCount="0.0"/>
				</Node>
			</Node>
			<Node score="1" recordCount="35.0">
				<SimplePredicate field="TopOilTemperature" operator="lessOrEqual" value="83.83182057"/>
				<ScoreDistribution value="0" recordCount="0.0"/>
				<ScoreDistribution value="1" recordCount="35.0"/>
				<ScoreDistribution value="2" recordCount="0.0"/>
				<ScoreDistribution value="3" recordCount="0.0"/>
				<ScoreDistribution value="4" recordCount="0.0"/>
				<ScoreDistribution value="5" recordCount="0.0"/>
			</Node>
			<Node>
				<SimplePredicate field="TopOilTemperature" operator="lessOrEqual" value="90.77300863"/>
				<Node>
					<SimplePredicate field="TransformerLoad" operator="lessOrEqual" value="0.166977486"/>
					<Node score="1" recordCount="2.0">
						<SimplePredicate field="TransformerLoad" operator="lessOrEqual" value="0.145302459"/>
						<ScoreDistribution value="0" recordCount="0.0"/>
						<ScoreDistribution value="1" recordCount="1.0"/>
						<ScoreDistribution value="2" recordCount="0.0"/>
						<ScoreDistribution value="3" recordCount="1.0"/>
						<ScoreDistribution value="4" recordCount="0.0"/>
						<ScoreDistribution value="5" recordCount="0.0"/>
					</Node>
					<Node score="1" recordCount="2.0">
						<True/>
						<ScoreDistribution value="0" recordCount="0.0"/>
						<ScoreDistribution value="1" recordCount="2.0"/>
						<ScoreDistribution value="2" recordCount="0.0"/>
						<ScoreDistribution value="3" recordCount="0.0"/>
						<ScoreDistribution value="4" recordCount="0.0"/>
						<ScoreDistribution value="5" recordCount="0.0"/>
					</Node>
				</Node>
				<Node score="2" recordCount="19.0">
					<SimplePredicate field="OilVolume" operator="lessOrEqual" value="925.2558117"/>
					<ScoreDistribution value="0" recordCount="0.0"/>
					<ScoreDistribution value="1" recordCount="4.0"/>
					<ScoreDistribution value="2" recordCount="14.0"/>
					<ScoreDistribution value="3" recordCount="1.0"/>
					<ScoreDistribution value="4" recordCount="0.0"/>
					<ScoreDistribution value="5" recordCount="0.0"/>
				</Node>
				<Node score="2" recordCount="13.0">
					<True/>
					<ScoreDistribution value="0" recordCount="0.0"/>
					<ScoreDistribution value="1" recordCount="5.0"/>
					<ScoreDistribution value="2" recordCount="7.0"/>
					<ScoreDistribution value="3" recordCount="1.0"/>
					<ScoreDistribution value="4" recordCount="0.0"/>
					<ScoreDistribution value="5" recordCount="0.0"/>
				</Node>
			</Node>
			<Node>
				<SimplePredicate field="OilVolume" operator="lessOrEqual" value="920.8439743"/>
				<Node score="3" recordCount="14.0">
					<SimplePredicate field="TransformerLoad" operator="lessOrEqual" value="0.640027171"/>
					<ScoreDistribution value="0" recordCount="0.0"/>
					<ScoreDistribution value="1" recordCount="0.0"/>
					<ScoreDistribution value="2" recordCount="0.0"/>
					<ScoreDistribution value="3" recordCount="7.0"/>
					<ScoreDistribution value="4" recordCount="5.0"/>
					<ScoreDistribution value="5" recordCount="2.0"/>
				</Node>
				<Node score="3" recordCount="14.0">
					<True/>
					<ScoreDistribution value="0" recordCount="0.0"/>
					<ScoreDistribution value="1" recordCount="0.0"/>
					<ScoreDistribution value="2" recordCount="0.0"/>
					<ScoreDistribution value="3" recordCount="7.0"/>
					<ScoreDistribution value="4" recordCount="0.0"/>
					<ScoreDistribution value="5" recordCount="7.0"/>
				</Node>
			</Node>
			<Node score="3" recordCount="1.0">
				<SimplePredicate field="TransformerLoad" operator="lessOrEqual" value="0.640027171"/>
				<ScoreDistribution value="0" recordCount="0.0"/>
				<ScoreDistribution value="1" recordCount="0.0"/>
				<ScoreDistribution value="2" recordCount="0.0"/>
				<ScoreDistribution value="3" recordCount="1.0"/>
				<ScoreDistribution value="4" recordCount="0.0"/>
				<ScoreDistribution value="5" recordCount="0.0"/>
			</Node>
			<Node score="4" recordCount="6.0">
				<True/>
				<ScoreDistribution value="0" recordCount="0.0"/>
				<ScoreDistribution value="1" recordCount="0.0"/>
				<ScoreDistribution value="2" recordCount="0.0"/>
				<ScoreDistribution value="3" recordCount="1.0"/>
				<ScoreDistribution value="4" recordCount="5.0"/>
				<ScoreDistribution value="5" recordCount="0.0"/>
			</Node>
		</Node>
	</TreeModel>
</PMML>